<?xml version="1.0"?>
<opencv_storage>
<stage14>
  <maxWeakCount>25</maxWeakCount>
  <stageThreshold>-7.4911183118820190e-01</stageThreshold>
  <weakClassifiers>
    <_>
      <internalNodes>
        0 -1 1852672 -2.2994319442659616e-03</internalNodes>
      <leafValues>
        8.0645161867141724e-01 2.1008403599262238e-01</leafValues></_>
    <_>
      <internalNodes>
        0 -1 281294 -4.9464656040072441e-03</internalNodes>
      <leafValues>
        4.3093696236610413e-01 -1.3136841356754303e-01</leafValues></_>
    <_>
      <internalNodes>
        0 -1 2195107 8.7457511108368635e-04</internalNodes>
      <leafValues>
        -1.9358992576599121e-01 3.1605812907218933e-01</leafValues></_>
    <_>
      <internalNodes>
        0 -1 2064756 4.2507650505285710e-05</internalNodes>
      <leafValues>
        7.6233290135860443e-02 -6.6806602478027344e-01</leafValues></_>
    <_>
      <internalNodes>
        0 -1 1677202 -2.1998540032655001e-03</internalNodes>
      <leafValues>
        5.6028705835342407e-01 -1.1033190041780472e-01</leafValues></_>
    <_>
      <internalNodes>
        0 -1 1474099 -1.3344397768378258e-02</internalNodes>
      <leafValues>
        4.7589477896690369e-01 -1.7557057738304138e-01</leafValues></_>
    <_>
      <internalNodes>
        0 -1 2192255 -8.0792675726115704e-04</internalNodes>
      <leafValues>
        4.4451883435249329e-01 -1.1005870997905731e-01</leafValues></_>
    <_>
      <internalNodes>
        0 -1 1633301 1.0166397260036319e-05</internalNodes>
      <leafValues>
        -2.6246610283851624e-01 2.3112656176090240e-01</leafValues></_>
    <_>
      <internalNodes>
        0 -1 306548 8.5394119378179312e-04</internalNodes>
      <leafValues>
        -2.0775611698627472e-01 3.2736641168594360e-01</leafValues></_>
    <_>
      <internalNodes>
        0 -1 1966817 -3.6960998841095716e-05</internalNodes>
      <leafValues>
        -7.3683983087539673e-01 8.1363417208194733e-02</leafValues></_>
    <_>
      <internalNodes>
        0 -1 1752100 -1.8226301763206720e-03</internalNodes>
      <leafValues>
        5.0984239578247070e-01 -1.2287751585245132e-01</leafValues></_>
    <_>
      <internalNodes>
        0 -1 1666812 -4.0590544231235981e-03</internalNodes>
      <leafValues>
        2.0839975774288177e-01 -2.6701888442039490e-01</leafValues></_>
    <_>
      <internalNodes>
        0 -1 122939 -1.5508793876506388e-04</internalNodes>
      <leafValues>
        -8.2065767049789429e-01 6.9771647453308105e-02</leafValues></_>
    <_>
      <internalNodes>
        0 -1 2346604 4.4029828859493136e-04</internalNodes>
      <leafValues>
        -1.3376541435718536e-01 4.7886118292808533e-01</leafValues></_>
    <_>
      <internalNodes>
        0 -1 2096160 4.8702657222747803e-03</internalNodes>
      <leafValues>
        -1.1404292285442352e-01 4.5745795965194702e-01</leafValues></_>
    <_>
      <internalNodes>
        0 -1 1183034 7.2535208892077208e-04</internalNodes>
      <leafValues>
        -1.5858863294124603e-01 3.9403659105300903e-01</leafValues></_>
    <_>
      <internalNodes>
        0 -1 1183202 -1.0036615421995521e-03</internalNodes>
      <leafValues>
        3.2191538810729980e-01 -2.0526094734668732e-01</leafValues></_>
    <_>
      <internalNodes>
        0 -1 2243626 -4.5630690874531865e-04</internalNodes>
      <leafValues>
        6.9595158100128174e-01 -6.8122468888759613e-02</leafValues></_>
    <_>
      <internalNodes>
        0 -1 1924512 3.7238863296806812e-03</internalNodes>
      <leafValues>
        9.4906054437160492e-02 -6.6263240575790405e-01</leafValues></_>
    <_>
      <internalNodes>
        0 -1 409646 7.5473880860954523e-04</internalNodes>
      <leafValues>
        7.0472195744514465e-02 -6.7060828208923340e-01</leafValues></_>
    <_>
      <internalNodes>
        0 -1 1483722 1.1499113170430064e-03</internalNodes>
      <leafValues>
        -9.0733766555786133e-02 6.4217656850814819e-01</leafValues></_>
    <_>
      <internalNodes>
        0 -1 1860687 -7.8535595093853772e-05</internalNodes>
      <leafValues>
        -6.4247566461563110e-01 9.1669894754886627e-02</leafValues></_>
    <_>
      <internalNodes>
        0 -1 2302682 -1.2118382073822431e-05</internalNodes>
      <leafValues>
        2.3262572288513184e-01 -2.3176139593124390e-01</leafValues></_>
    <_>
      <internalNodes>
        0 -1 1853802 1.1508732568472624e-03</internalNodes>
      <leafValues>
        -7.6986096799373627e-02 7.1099144220352173e-01</leafValues></_>
    <_>
      <internalNodes>
        0 -1 875952 1.1628958418441471e-05</internalNodes>
      <leafValues>
        -2.2982139885425568e-01 2.2590568661689758e-01</leafValues></_></weakClassifiers></stage14>
</opencv_storage>
