<?xml version="1.0"?>
<opencv_storage>
<stage3>
  <maxWeakCount>10</maxWeakCount>
  <stageThreshold>-7.3001760244369507e-01</stageThreshold>
  <weakClassifiers>
    <_>
      <internalNodes>
        0 -1 1734144 -4.1174730286002159e-03</internalNodes>
      <leafValues>
        5.6629914045333862e-01 -5.2232605218887329e-01</leafValues></_>
    <_>
      <internalNodes>
        0 -1 1854083 -4.9514942802488804e-03</internalNodes>
      <leafValues>
        4.8674970865249634e-01 -3.6436107754707336e-01</leafValues></_>
    <_>
      <internalNodes>
        0 -1 1848366 -1.3956406619399786e-03</internalNodes>
      <leafValues>
        6.7044085264205933e-01 -2.3291531205177307e-01</leafValues></_>
    <_>
      <internalNodes>
        0 -1 1967889 1.6808972577564418e-04</internalNodes>
      <leafValues>
        1.8792100250720978e-01 -8.2545185089111328e-01</leafValues></_>
    <_>
      <internalNodes>
        0 -1 1543816 -6.2039173208177090e-03</internalNodes>
      <leafValues>
        5.0289636850357056e-01 -3.2676362991333008e-01</leafValues></_>
    <_>
      <internalNodes>
        0 -1 1915457 -1.3752846280112863e-04</internalNodes>
      <leafValues>
        -6.7034876346588135e-01 1.8431663513183594e-01</leafValues></_>
    <_>
      <internalNodes>
        0 -1 1547953 -1.6563201788812876e-03</internalNodes>
      <leafValues>
        6.9777488708496094e-01 -2.0111167430877686e-01</leafValues></_>
    <_>
      <internalNodes>
        0 -1 381120 -4.2254179716110229e-03</internalNodes>
      <leafValues>
        4.8881602287292480e-01 -2.6179990172386169e-01</leafValues></_>
    <_>
      <internalNodes>
        0 -1 2235297 8.1530469469726086e-04</internalNodes>
      <leafValues>
        -1.9644863903522491e-01 6.4268547296524048e-01</leafValues></_>
    <_>
      <internalNodes>
        0 -1 1913338 4.1739123844308779e-05</internalNodes>
      <leafValues>
        1.7381109297275543e-01 -8.3337670564651489e-01</leafValues></_></weakClassifiers></stage3>
</opencv_storage>
